# Shape: (32, 1, 7)
0.90835661
0.70111245
0.42460215
-0.99255210
0.31980953
-0.58197004
-0.02030220
-0.75644726
-0.35455996
0.77721548
-0.18501621
-0.66166675
-0.34312654
-0.26371792
-0.36243412
0.35942021
0.77419561
-0.07523497
-0.23447545
0.20722437
-0.35738644
0.50832379
0.37750101
0.79225212
0.60298502
0.61113960
0.28777665
0.62920141
-0.10918875
0.01968561
-0.11859373
0.40534118
-0.65274143
-0.41070467
-0.10529570
0.80957198
0.15032162
-0.20012017
0.14411822
-0.36514643
-0.73424673
0.46934736
-0.41473502
-0.28338107
-0.60064065
1.00069046
-0.58202106
-0.23000480
-0.43078029
-0.31024888
0.03678081
0.24786863
-0.23004150
0.56161678
-0.38372689
-0.34695032
-0.66149735
0.01697229
-0.02992347
0.31848791
-0.04610661
0.86954993
-0.55839628
0.65221143
0.68124259
0.40371674
1.04561090
0.24662259
0.16341081
-0.09302294
-0.49713799
0.60245287
-0.08117121
0.24691625
0.02669178
0.20095792
0.27105999
-0.30251166
-1.04010618
-0.35393196
0.00512329
-0.15968467
-0.63200241
-0.27594632
0.25276151
0.24730948
0.53796762
0.02434502
0.35070232
-0.22702107
-0.49472308
0.28468063
-0.81189770
-0.39021400
0.62918502
0.22794260
-1.18301058
0.23004590
0.36985779
0.01350441
0.30205494
0.27494547
0.50295407
-0.21220434
-0.08733593
0.35485393
0.19080466
0.08412968
0.12487954
0.60017729
-0.00061795
-0.14312018
-0.68685013
-0.04824129
-0.28244346
0.22488655
0.34232321
0.04296940
-0.18340710
0.24886222
-0.00597999
0.11353133
0.06247777
0.36026648
0.51619250
0.16022614
0.33939594
0.19393942
0.91035783
0.47699720
-0.67712849
-0.53262103
-0.06412730
0.77093947
0.30864775
0.27153116
0.53811204
0.00875142
-0.85126466
0.43625420
-0.17693903
0.48700207
-0.32369035
0.30019683
-0.45852289
0.45182133
0.76329845
0.68382400
0.12703481
-0.09917219
-0.34544653
0.04916647
0.16440313
0.45612827
-0.21952763
0.75650871
-1.16913986
-0.19683200
-0.56354231
0.38293931
-0.89592940
0.10775201
0.01171884
-0.16308251
0.13521428
-0.34452242
0.08241106
-0.51568323
-0.75526565
0.63776171
0.60755920
0.02465232
-0.72919232
0.35671467
0.36558339
0.95531803
0.01688458
0.05684607
-0.37979352
-0.09785265
-0.43932441
-0.74998868
-0.53550410
-0.24635488
-0.24455209
-0.70770848
-0.90823352
0.06026965
0.48220599
-0.26200435
0.33199736
0.33463874
0.83645475
-0.43442330
0.45370325
-0.15887047
-0.55405760
0.16878973
0.22569336
0.63814032
0.24798805
0.99562424
-0.24548727
-0.43935189
0.08728589
0.50378615
0.61590624
0.21676807
-0.38401878
-0.48141682
-0.23330921
-0.27919012
0.07274523
0.20777960
-0.06990566
-1.09292471
-0.18761680
0.50934613
-0.83950752
0.71089941
0.14586602
-0.23584795
0.48790517
0.79650730
